<?xml version="1.0"?>
<opencv_storage>
<hitThreshold>9.8114037513732910e-01</hitThreshold>
<odtrained_hog type_id="opencv-object-detector-hog">
  <winSize>
    64 128</winSize>
  <blockSize>
    16 16</blockSize>
  <blockStride>
    8 8</blockStride>
  <cellSize>
    8 8</cellSize>
  <nbins>9</nbins>
  <derivAperture>1</derivAperture>
  <winSigma>4.</winSigma>
  <histogramNormType>0</histogramNormType>
  <L2HysThreshold>2.0000000000000001e-01</L2HysThreshold>
  <gammaCorrection>0</gammaCorrection>
  <nlevels>64</nlevels>
  <SVMDetector>
    1.36851333e-02 -1.78799778e-02 -1.52936745e-02 -2.67829932e-02
    5.74135361e-03 3.05864811e-02 -7.31275592e-04 -3.01607279e-03
    2.24616453e-02 1.32926479e-02 -2.20556669e-02 -1.44247869e-02
    2.08781343e-02 -2.98106354e-02 6.67287502e-03 -1.69414114e-02
    3.99260176e-03 2.31789351e-02 4.59072776e-02 -2.63695810e-02
    1.95541233e-03 3.54852863e-02 2.33242102e-02 -1.74795892e-02
    -2.09813695e-02 -2.06316262e-02 1.33528970e-02 -6.02634856e-03
    -1.53415864e-02 -2.29821615e-02 -6.62410632e-03 -1.69773102e-02
    1.56806130e-02 1.74501315e-02 1.01673761e-02 -3.88828255e-02
    -2.02049725e-02 -4.70635481e-02 1.52994171e-02 9.67488624e-03
    4.44518228e-04 5.44667132e-02 -4.70442101e-02 -1.27918785e-03
    2.50872429e-02 6.28545582e-02 -4.56427112e-02 3.29522900e-02
    1.53113222e-02 -2.40142308e-02 -1.08115710e-02 -3.31351720e-03
    2.26823464e-02 2.76684873e-02 -4.22631297e-03 2.56483145e-02
    2.31823083e-02 9.86424554e-03 4.72884774e-02 1.47319185e-02
    -2.73438785e-02 -1.40448967e-02 -1.65985655e-02 1.30254431e-02
    -2.71400809e-03 -8.31841026e-03 1.84356403e-02 5.87450480e-03
    1.51042473e-02 -7.24184187e-03 -2.07356177e-02 -8.54121894e-03
    8.84076487e-03 -9.09009762e-03 -5.91327390e-03 3.13980170e-02
    1.97384693e-02 -2.77883420e-03 4.42443183e-03 3.69609483e-02
    -1.63359400e-02 4.88564838e-04 -1.29907383e-02 1.15562789e-02
    1.05802985e-02 -2.47484073e-02 3.38244326e-02 3.38497921e-03
    -2.15187129e-02 2.36505326e-02 1.74170956e-02 -1.34172905e-02
    7.57311936e-03 -1.36162704e-02 1.94916837e-02 -9.16357804e-03
    2.67665740e-02 2.44159698e-02 -6.01332216e-03 -1.57980788e-02
    -9.64279193e-03 -3.00822183e-02 -1.35831407e-03 -3.09901834e-02
    -7.83634139e-04 1.74985882e-02 -2.96866614e-02 -1.62983295e-02
    -8.81369598e-03 2.40806583e-02 1.64113985e-03 1.39424000e-02
    4.27608518e-03 -3.99328023e-03 3.42154205e-02 1.36567270e-02
    2.39259694e-02 5.80249866e-03 1.35655841e-02 5.52185671e-03
    1.30491182e-02 7.96754006e-03 3.80337648e-02 -1.40259387e-02
    -4.92428839e-02 1.74811240e-02 -4.16428549e-03 5.78532554e-02
    -2.71284450e-02 2.37087607e-02 -1.11089135e-02 -9.25874745e-04
    1.60382036e-02 3.40534709e-02 -3.16890364e-04 3.76910320e-03
    -2.46350914e-02 1.19998287e-02 -1.07144816e-02 -1.26099307e-02
    -2.47175228e-02 4.62034921e-04 -1.57609973e-02 1.05189094e-02
    -3.23147066e-02 2.89637153e-03 -1.13295182e-03 -1.82633344e-02
    -6.83505880e-03 9.06989211e-04 -8.09428189e-03 2.17229053e-02
    2.64877323e-02 -2.00502463e-02 -2.31145192e-02 1.49368262e-03
    4.33988273e-02 8.55687447e-03 -6.05848245e-03 -2.49208193e-02
    -2.68105604e-02 -2.23143566e-02 -8.60401243e-03 -1.23247048e-02
    -1.81736425e-03 2.79039759e-02 -1.56629793e-02 -1.66987143e-02
    3.71106230e-02 6.19143061e-02 1.57037191e-02 -2.92021818e-02
    -4.28126752e-02 2.71632914e-02 -1.59759205e-02 1.03724264e-02
    -7.94653781e-03 1.03752119e-02 -1.42844804e-02 -1.21202189e-02
    -2.09717844e-02 -2.84352116e-02 -4.21562307e-02 4.26450465e-03
    -2.03972347e-02 -5.85619500e-03 -2.06476524e-02 2.32895762e-02
    3.16097923e-02 -2.25741882e-02 -7.51710758e-02 7.96726905e-03
    1.12410877e-02 5.44335134e-03 -3.92459519e-03 -1.92157757e-02
    1.24499772e-03 -2.80429758e-02 1.19895535e-03 -3.03712841e-02
    -4.22081612e-02 2.11785845e-02 1.26695801e-02 6.27092877e-03
    -1.12553500e-02 2.51461752e-02 -4.07340042e-02 2.92247329e-02
    -2.88334284e-02 2.28646211e-03 9.96207632e-03 1.11562088e-02
    -1.69302505e-02 1.40447402e-02 -5.19274063e-02 -6.52442453e-03
    -2.00097612e-03 -1.53087191e-02 1.01924622e-02 5.73147135e-03
    -1.88102033e-02 -1.55900810e-02 -1.26361977e-02 1.81487128e-02
    5.04429862e-02 -3.38064767e-02 -2.80585866e-02 -3.03231515e-02
    3.66576836e-02 4.91674477e-03 -8.05715099e-03 -3.71008888e-02
    8.73429608e-03 2.08926816e-02 1.15152728e-02 -1.24304350e-02
    1.64843015e-02 3.01420372e-02 6.27402274e-04 2.29464425e-03
    8.30374658e-03 -4.60500736e-03 -2.23752260e-02 -6.44004392e-03
    -3.21893953e-02 9.31817293e-03 1.09674446e-02 3.06659308e-03
    -5.01178857e-03 -2.97078006e-02 1.52112974e-03 -4.78315577e-02
    -4.60399203e-02 -7.63454288e-03 -2.00457908e-02 6.23372430e-03
    7.03588547e-03 -1.13489069e-02 -1.10123381e-02 2.10721307e-02
    3.47675267e-03 -1.75024997e-02 1.88928228e-02 -1.46331051e-02
    -3.38857882e-02 -3.24026085e-02 2.94243954e-02 -5.52002899e-03
    -7.11875549e-03 -1.11499103e-02 -3.41097196e-03 -1.95795274e-03
    -4.40008286e-03 3.77923250e-02 -5.06293774e-03 3.20609026e-02
    -5.99051081e-03 1.08982222e-02 1.03215575e-02 -9.73561686e-03
    8.76205787e-03 -7.60118570e-03 -1.36698550e-02 3.96603812e-03
    -5.98410517e-03 -2.24629026e-02 -4.61234618e-03 3.62035888e-03
    -4.34977710e-02 -6.85967272e-04 -9.15043056e-03 4.83346879e-02
    -2.41629258e-02 3.26339491e-02 -2.57228268e-04 -2.26956103e-02
    1.39606399e-02 -3.23436782e-02 -1.67577583e-02 -8.04291200e-03
    4.43647243e-02 -2.46471949e-02 -3.51702492e-03 2.40851268e-02
    2.27613617e-02 2.05307896e-03 -3.18311551e-03 -2.14849114e-02
    -3.56274843e-02 -2.76953038e-02 -9.19125788e-03 2.56958846e-02
    -2.26047225e-02 1.77389532e-02 -2.84436217e-04 -5.20123029e-03
    1.94615204e-04 4.42056870e-03 -5.88069372e-02 -1.16926143e-02
    -2.64959056e-02 -3.31030786e-02 7.30181206e-03 1.42470719e-02
    -3.89944166e-02 -5.84592745e-02 -4.95892623e-03 -2.06472818e-02
    -3.96271609e-02 -4.39968338e-04 -8.11403338e-03 -2.74823420e-02
    4.10404708e-03 1.29999937e-02 -1.38400346e-02 -5.02970628e-03
    -4.35975716e-02 -1.41025241e-02 -5.64455334e-03 -3.97459371e-03
    -3.31744701e-02 -2.65991166e-02 6.86630257e-04 -9.46340524e-03
    5.99484891e-02 2.40098983e-02 3.38865407e-02 3.59991193e-02
    -2.33292989e-02 7.62008305e-04 -2.14660391e-02 -1.15710730e-02
    2.13968265e-03 -1.80337089e-03 1.85713693e-02 -6.61182450e-03
    6.34742377e-04 -1.70053812e-04 -2.64616981e-02 -3.27525102e-03
    1.21404761e-02 -1.29247596e-02 -9.20984522e-03 1.17833493e-03
    2.06666384e-02 3.48777957e-02 2.93316860e-02 1.96067374e-02
    1.43555412e-02 1.43954633e-02 -3.08830640e-03 1.94655787e-02
    1.71397533e-02 -1.72040239e-02 -1.97934620e-02 -2.03941506e-03
    2.80488078e-02 3.18101444e-03 -4.88534244e-03 3.40067260e-02
    -1.88026335e-02 4.11350019e-02 7.75370654e-03 -3.83657515e-02
    9.20061837e-04 3.63252894e-03 -1.03075709e-02 6.77825324e-03
    -1.99715551e-02 2.62623141e-03 3.59033905e-02 -1.20448563e-02
    2.84772441e-02 -1.99353676e-02 -2.27007009e-02 5.85776288e-03
    -4.63800281e-02 -3.29686422e-03 1.59979686e-02 3.25563774e-02
    8.56494810e-03 -2.26696413e-02 -2.14718096e-02 1.87827405e-02
    -1.69691108e-02 -3.62685584e-02 8.65817163e-03 3.02565470e-02
    2.15276927e-02 -1.85015742e-02 3.21038142e-02 -4.73836511e-02
    -8.37836135e-03 1.48652187e-02 -3.69548984e-02 1.04361186e-02
    -2.15184987e-02 -8.95497482e-03 -6.30713627e-03 7.09648663e-03
    -1.60996951e-02 -1.12420814e-02 1.18923569e-02 -3.84987034e-02
    1.80607312e-03 1.95819736e-02 -6.05577044e-03 -3.81131880e-02
    1.85180716e-02 2.48703025e-02 -5.38384765e-02 1.20381583e-02
    9.52192117e-03 3.93291712e-02 2.90458556e-02 -4.49926453e-03
    -9.50845191e-04 -1.18350238e-02 -3.09998170e-02 5.94141614e-03
    -8.87436327e-03 -1.81355551e-02 -1.41020129e-02 6.07083971e-03
    -4.15501632e-02 -1.00738183e-02 -1.49151655e-02 -2.60146474e-03
    2.62427423e-02 -2.01632790e-02 -1.96871161e-02 -2.16163928e-03
    -7.70392502e-03 6.93287328e-03 1.00577679e-02 2.28280798e-02
    2.09366228e-03 9.39310621e-03 -2.81303823e-02 5.13323292e-04
    5.54387982e-04 4.93329763e-03 1.73606202e-02 -1.41651863e-02
    -8.57987441e-03 3.45370662e-03 1.87252630e-02 -3.20606045e-02
    -2.64233761e-02 8.42645764e-03 5.61704189e-02 2.28497423e-02
    5.50531829e-03 -3.13938246e-03 -3.50861475e-02 3.58687975e-02
    -1.83690600e-02 -4.75815032e-03 -3.71058360e-02 2.11661514e-02
    1.75277628e-02 2.70454977e-02 2.42552552e-02 -9.72506998e-04
    -4.68863994e-02 1.01803401e-02 2.55111940e-02 -1.86988860e-02
    5.17922314e-03 -1.22520691e-02 1.06075052e-02 -2.61741020e-02
    1.67085510e-02 2.67328341e-02 -6.58022985e-03 -1.97778568e-02
    -1.59733579e-03 3.03444290e-03 -1.66430208e-03 1.80942714e-02
    -1.86512396e-02 -1.71554238e-02 -2.90379599e-02 1.00499010e-02
    7.06229534e-04 -1.07423188e-02 -7.09128287e-03 1.02655608e-02
    -2.70826649e-02 1.09809162e-02 1.69290369e-03 -1.91601645e-02
    2.38262266e-02 3.62197198e-02 -1.70246640e-03 -1.12569872e-02
    -1.76070016e-02 -6.86679408e-02 -2.23264657e-02 -1.61286583e-03
    -2.58359741e-02 3.67709734e-02 -1.39835700e-02 -1.60002057e-02
    3.22538950e-02 -2.13144142e-02 -4.39118482e-02 4.05748002e-03
    -2.77861394e-02 7.13898509e-04 1.93577656e-03 -1.42122265e-02
    -4.61596437e-02 -9.76321567e-03 8.98955215e-04 -4.42254730e-02
    1.20265661e-02 3.12868915e-02 -2.81281420e-03 -1.82430930e-02
    2.76622386e-03 -1.67176537e-02 7.70053500e-03 1.81549788e-03
    5.45851979e-03 1.64478458e-03 -2.12797448e-02 -1.88376885e-02
    1.01593952e-03 2.72988472e-02 -2.80318176e-03 4.80021862e-03
    -2.11102366e-02 -2.79275887e-03 2.25781021e-03 -1.21109728e-02
    -7.81649374e-04 1.28578432e-02 -4.78089135e-03 -2.47395951e-02
    -1.67880841e-02 -1.90752856e-02 1.47535754e-02 5.36369123e-02
    1.79512221e-02 6.68665674e-03 1.47236018e-02 2.48805154e-02
    8.09266698e-03 -4.16547380e-04 -3.54378996e-03 1.10605583e-02
    -2.36987881e-02 3.50872520e-03 3.27731855e-02 -5.36385924e-03
    1.73543766e-02 -7.62226526e-03 2.22158059e-02 3.68239568e-03
    -2.58435635e-03 -1.36334551e-02 -3.25044468e-02 1.58902432e-03
    6.06696401e-03 1.99123863e-02 -1.40619669e-02 -1.62161570e-02
    -2.80133449e-02 -1.44596202e-02 -1.22880284e-02 -2.02008616e-02
    2.35048942e-02 2.24190652e-02 1.07932836e-02 -6.76407199e-03
    2.94559766e-02 3.15758251e-02 6.13534963e-03 2.40800139e-02
    2.04365868e-02 2.04568934e-02 -7.77195347e-03 8.18064623e-03
    -3.33324596e-02 5.02948090e-03 -6.97385520e-03 1.57663992e-04
    -1.04333647e-03 -1.70821548e-02 6.79426221e-03 4.55435924e-03
    -1.20322034e-02 -5.00347372e-03 -2.04038396e-02 7.16413511e-03
    1.83062367e-02 -5.93869481e-04 -6.37881749e-04 7.82361254e-03
    2.37705628e-03 1.87611487e-02 -1.05239665e-02 -1.11723468e-02
    2.46736035e-02 3.65227945e-02 -1.17511554e-02 -3.88787990e-03
    -8.66718218e-03 2.81245448e-02 8.07254482e-03 -2.93951705e-02
    1.05692931e-02 -1.85527857e-02 -1.33839790e-02 -7.61912856e-03
    -2.48867478e-02 -3.20090391e-02 1.55305807e-02 -2.70541497e-02
    -4.20312993e-02 -4.33237292e-02 -6.04944713e-02 -1.22260414e-02
    -1.93148460e-02 4.56279889e-03 -1.71302492e-03 -1.90775394e-02
    -3.62957157e-02 -2.48868503e-02 1.11739663e-03 -5.61762135e-03
    -2.98280828e-02 -8.54633655e-03 -6.62599877e-03 2.85409745e-02
    -6.31388044e-03 -2.95523531e-03 -2.10477039e-02 -9.17651653e-02
    -3.73456217e-02 1.86633430e-02 1.37877828e-02 -3.66581604e-02
    1.08387535e-02 -1.64222121e-02 -1.10236304e-02 9.63866897e-03
    3.92016508e-02 -4.72418033e-02 -4.06800956e-02 -1.81769636e-02
    8.67385138e-03 1.65183004e-02 -4.02298346e-02 5.08669354e-02
    4.82843891e-02 3.67001817e-02 6.44780975e-03 8.99702962e-03
    2.03928482e-02 2.25773193e-02 -4.35170010e-02 -1.68477825e-03
    1.64070576e-02 8.19005892e-02 -5.35764210e-02 -2.05224492e-02
    3.28754857e-02 -1.32410927e-02 -2.35721190e-02 3.05025335e-02
    3.79939284e-03 1.60068683e-02 1.83165241e-02 -2.12845430e-02
    -5.44686709e-03 2.17985790e-02 1.85565595e-02 1.31932655e-02
    -1.73554290e-02 -4.07786444e-02 7.70357624e-02 1.06889859e-01
    -8.35971832e-02 -9.13663432e-02 -4.55978699e-02 -6.12035207e-03
    1.41989226e-02 -1.20459450e-02 -3.90157215e-02 4.24250923e-02
    -1.65675022e-02 -4.00435477e-02 -1.43532343e-02 1.21567221e-02
    1.25992997e-03 -5.77448867e-03 -3.83875407e-02 -3.77983670e-03
    6.66979775e-02 2.99906619e-02 -2.78934371e-02 8.33987538e-03
    -1.72545761e-02 2.03359183e-02 -3.22640538e-02 3.01105576e-03
    1.01654176e-02 2.74388809e-02 -3.23846890e-03 -4.71398383e-02
    2.11821683e-02 -9.85826459e-03 3.41757312e-02 -5.85742004e-04
    3.68533209e-02 3.45760328e-03 3.87497954e-02 5.03303930e-02
    4.80478778e-02 1.88793037e-02 4.47221808e-02 4.23604622e-03
    1.92729179e-02 -5.75765967e-03 -3.83499898e-02 2.57554110e-02
    2.31198352e-02 3.28686833e-02 4.70647067e-02 2.62372568e-02
    2.20276508e-02 -7.84193445e-03 -7.46936118e-03 -2.39494704e-02
    2.41014082e-03 8.96371715e-03 -5.89879369e-03 -1.26551241e-02
    5.51926345e-02 -2.03862898e-02 8.98967870e-03 3.52133885e-02
    5.07637300e-02 2.73572579e-02 2.81469263e-02 -8.24887422e-04
    -1.20058283e-02 4.09356179e-03 2.27427743e-02 -3.51660177e-02
    3.94757204e-02 1.90244839e-02 3.25061344e-02 1.81415286e-02
    -6.11148812e-02 1.01455301e-02 2.75730379e-02 3.04451473e-02
    -1.47044398e-02 6.44078804e-03 1.12534445e-02 1.55490460e-02
    3.16183828e-02 -2.05028094e-02 5.43855887e-04 -1.92217191e-03
    -2.86968313e-02 -3.39337401e-02 -2.62060706e-02 1.57701387e-03
    -2.53017955e-02 -1.77636016e-02 -1.71360951e-02 6.15719846e-03
    -1.62993222e-02 2.44370420e-02 -4.91891280e-02 8.50118138e-03
    1.63038932e-02 1.32496627e-02 -5.70293656e-03 -9.11563076e-03
    -1.05138952e-02 8.60340428e-03 -2.56646443e-02 3.13504273e-03
    -3.62734334e-03 -2.91187707e-02 1.26188416e-02 2.10698266e-02
    -1.81389635e-03 8.85610096e-03 1.24814175e-02 -7.27934856e-03
    2.38534007e-02 2.79760710e-03 -1.65727381e-02 2.33214181e-02
    3.22855562e-02 -3.89873167e-03 -1.30806072e-02 5.65994941e-02
    -8.06570984e-03 2.01231660e-03 -1.28215328e-02 -3.38969636e-03
    3.53430696e-02 -1.49135664e-02 -1.63208116e-02 1.14448164e-02
    2.02732794e-02 4.81757242e-03 2.22334219e-03 1.87962633e-02
    1.51255857e-02 1.91288609e-02 -1.59208849e-02 3.20655219e-02
    -1.61116198e-02 5.18686175e-02 -2.06145030e-02 6.00895705e-03
    1.73319131e-02 -4.28213784e-03 4.32319427e-03 2.61771046e-02
    2.56559439e-02 6.75643012e-02 1.80260446e-02 3.77085693e-02
    2.42591426e-02 -7.65168248e-03 1.51484404e-02 -1.82351787e-02
    -7.46203179e-04 2.70646065e-02 7.54084587e-02 4.49736342e-02
    2.48512682e-02 1.13720624e-02 -4.70519885e-02 -3.00550740e-03
    -1.56452954e-02 -3.03081274e-02 -1.47940954e-02 -6.43342128e-03
    -7.78159825e-04 3.43364179e-02 2.58172080e-02 2.96852607e-02
    -5.29333837e-02 -7.50620011e-03 -5.86876506e-03 -5.63636236e-03
    1.18193273e-02 1.25319529e-02 1.06768394e-02 2.11770553e-02
    1.32759027e-02 -2.71717105e-02 2.21640076e-02 6.32097991e-03
    8.56784265e-03 7.94248953e-02 2.55640298e-02 7.82909710e-03
    -2.29425412e-02 -3.83081213e-02 -1.10632684e-02 -4.13629506e-03
    1.39661543e-02 2.31429096e-02 -1.99538786e-02 4.19050679e-02
    2.38533877e-02 -8.36321618e-03 -3.54190841e-02 2.39031520e-02
    3.66173522e-03 -7.53845600e-03 -1.20433103e-02 2.82675843e-03
    1.99813284e-02 4.80175205e-03 -1.97907630e-02 2.42700037e-02
    -2.52810903e-02 1.81104410e-02 7.11062923e-03 -2.21267492e-02
    1.53746502e-02 1.83857046e-02 4.20923531e-02 -3.49101401e-03
    1.16794594e-02 -3.99163887e-02 1.27992667e-02 2.09910292e-02
    -1.87328588e-02 1.58246625e-02 -3.22490484e-02 4.34131809e-02
    -1.29780807e-02 -1.25587611e-02 -4.01293151e-02 -1.69438533e-02
    3.08078732e-02 1.83259994e-02 9.86077730e-03 3.44247743e-02
    3.99815701e-02 2.79213469e-02 -1.83248445e-02 1.04357125e-02
    3.72532377e-04 1.63810179e-02 -2.82782465e-02 -2.45984457e-02
    1.79636721e-02 6.21113693e-03 1.24446638e-02 1.10240551e-02
    -2.44268067e-02 1.47069979e-03 1.95577536e-02 -1.51987176e-03
    1.57079436e-02 3.90425324e-02 -2.96983076e-03 3.09062302e-02
    -1.91418198e-03 -1.60727743e-02 1.08466400e-02 2.42844224e-02
    2.91766059e-02 5.73989516e-03 7.67362071e-03 1.40932407e-02
    4.22856770e-02 -3.01252119e-02 -1.81218144e-02 -4.48049186e-03
    -1.62391309e-02 2.86263283e-02 -2.24356842e-03 3.03823873e-03
    8.21183249e-03 4.19623330e-02 -3.82984951e-02 2.72755846e-02
    -3.09626218e-02 1.84761290e-03 1.31666968e-02 -1.44532451e-03
    1.28564266e-02 -2.79151853e-02 -4.32868525e-02 1.47120040e-02
    3.21978144e-02 4.64373501e-03 -3.05739548e-02 -4.49590245e-03
    2.60325111e-02 -1.72868073e-02 -4.05886769e-02 -3.13771120e-03
    -3.29410774e-03 5.54739591e-03 -4.23261896e-02 1.02020102e-02
    2.29937974e-02 6.13616668e-02 7.74734020e-02 6.59955293e-02
    3.49102989e-02 2.66696978e-02 -1.75958443e-02 -1.70049053e-02
    6.03487110e-03 4.27493565e-02 4.42050658e-02 9.96004418e-03
    3.38633247e-02 1.79434922e-02 6.59926655e-03 -4.20525335e-02
    9.17919353e-03 -1.70083810e-02 1.01076970e-02 -4.80405614e-02
    -1.64138470e-02 -1.59775733e-03 2.00971682e-02 1.42238569e-02
    3.12400423e-03 2.19345950e-02 -3.85496789e-03 -1.18978573e-02
    -3.91441397e-03 -1.57107934e-04 9.99438204e-03 -2.29669251e-02
    -2.96202525e-02 3.67898084e-02 1.20467106e-02 -4.91848122e-03
    3.21713611e-02 1.59484949e-02 -6.15785643e-03 5.27428612e-02
    3.64364386e-02 4.54509147e-02 -2.76010204e-02 3.50696668e-02
    -4.84170914e-02 3.11295688e-03 -3.32773626e-02 2.26331055e-02
    3.39715742e-02 4.57719415e-02 -4.05290350e-03 1.73827093e-02
    5.44675812e-03 -1.61116570e-02 4.94793504e-02 1.23428805e-02
    -3.00973887e-03 -1.65487360e-03 -1.32264709e-02 2.13658973e-03
    4.58321460e-02 4.29715030e-03 -4.44999225e-02 1.41779212e-02
    9.35390219e-03 9.65930708e-03 -6.42038742e-03 1.86862685e-02
    -1.22941295e-02 1.97550356e-02 -1.95758305e-02 -4.06043902e-02
    1.95117667e-02 -1.44271590e-02 -2.80787870e-02 -2.44785901e-02
    2.20088679e-02 1.07391775e-02 1.59459356e-02 -6.72468124e-03
    -3.73890363e-02 -8.02599546e-03 3.65649574e-02 -3.34214903e-02
    -2.62947176e-02 -3.82482968e-02 -3.56168747e-02 6.75741956e-03
    -6.40332559e-03 -4.42770943e-02 2.08891230e-03 5.43523505e-02
    2.67166030e-02 -2.26136986e-02 -1.42816845e-02 -1.22624813e-02
    -1.29960133e-02 4.87262383e-02 -6.17189507e-05 8.17710999e-03
    3.46948691e-02 1.04507711e-02 1.17444759e-02 -1.32471863e-02
    -3.61465141e-02 9.91929322e-03 1.32624879e-02 -1.29291592e-02
    -3.51157133e-03 4.60776985e-02 -1.52079361e-02 -2.09907293e-02
    -1.99151635e-02 -9.65399109e-03 1.17033105e-02 1.31334731e-04
    -6.25694171e-02 -3.08061554e-03 3.99842131e-04 -3.74900252e-02
    4.49051009e-03 8.99330433e-03 1.93619952e-02 -9.02523054e-04
    -2.74735596e-02 -6.64547086e-02 -5.57023063e-02 -5.57832196e-02
    -2.07228698e-02 -4.63255867e-03 -3.19489054e-02 -4.48563918e-02
    -4.43715043e-02 1.82168502e-02 -1.77271757e-02 -3.87281887e-02
    -5.05920537e-02 3.21972705e-02 2.16720626e-02 -3.50026190e-02
    -3.77549864e-02 -3.26026157e-02 7.56381359e-03 -5.83688579e-02
    5.33028059e-02 1.56887283e-03 -2.51316186e-02 -1.91333126e-02
    -4.67143022e-02 -2.12168675e-02 -7.20714871e-03 7.63487071e-02
    1.20155789e-01 8.03520456e-02 7.46432096e-02 -7.14834314e-03
    -1.69021972e-02 1.78875751e-03 -2.08124574e-02 -3.45403254e-02
    6.42134547e-02 2.69725174e-02 1.11189019e-02 -1.22831399e-02
    2.85285749e-02 4.77114506e-03 -1.67631041e-02 -1.29173063e-02
    4.33996916e-02 -9.72398184e-03 -9.99481082e-02 -4.83377539e-02
    4.04337421e-02 4.53728512e-02 1.13785779e-02 1.34043454e-03
    5.48500381e-02 7.70733505e-02 5.48333526e-02 6.22772910e-02
    -1.58402957e-02 -6.09107018e-02 -4.60188910e-02 -4.54839729e-02
    -8.78899172e-03 4.58072908e-02 7.50900656e-02 -1.41899567e-02
    -7.46245831e-02 -3.30293328e-02 1.21875675e-02 4.17466797e-02
    -4.03646827e-02 5.21599017e-02 1.24052830e-01 8.41397271e-02
    -7.86442682e-02 3.81299779e-02 1.36796936e-01 1.08137965e-01
    8.82386230e-03 -3.86724807e-02 -2.68317331e-02 3.49033810e-02
    -4.59945835e-02 1.23629263e-02 3.83790024e-02 8.22311789e-02
    4.86784652e-02 -1.71909365e-03 -3.28697301e-02 -2.49720030e-02
    -5.94008639e-02 -6.99968562e-02 -1.76689979e-02 4.88095097e-02
    1.41661450e-01 1.25996590e-01 6.57567009e-03 -3.55775766e-02
    4.81449487e-03 4.52635475e-02 4.90818406e-04 -3.86703685e-02
    -7.39511801e-03 1.00723036e-01 4.07840088e-02 3.62372175e-02
    -6.71196636e-03 -4.56554219e-02 -3.66813317e-02 -1.43205086e-02
    1.07265942e-01 2.19954103e-01 7.65703097e-02 5.55670671e-02
    -1.69787742e-02 3.27696502e-02 4.16800864e-02 9.96957533e-03
    -2.63674222e-02 -4.13780473e-02 1.91831421e-02 -6.66381568e-02
    -5.96690178e-02 -2.00532712e-02 -2.01461781e-02 4.37546615e-03
    -1.80097334e-02 -1.93502456e-02 -4.29592133e-02 -1.86885223e-02
    -5.79582602e-02 -7.86511526e-02 -3.43380719e-02 -1.60235204e-02
    5.62910631e-04 1.29283359e-03 -4.31402922e-02 -6.28446369e-03
    -1.85959041e-02 -2.49261558e-02 -3.64594609e-02 -7.63461750e-04
    1.21549312e-02 2.92081423e-02 -1.45577034e-02 1.16134901e-02
    -3.53557765e-02 5.36878109e-02 -3.74966464e-03 -2.94255894e-02
    -6.01104237e-02 -2.66960561e-02 -2.37175673e-02 -9.41006187e-03
    4.68287133e-02 -4.14180644e-02 4.55486216e-02 -3.13354935e-03
    -2.07513501e-03 -1.25009026e-02 1.11444704e-02 2.85009071e-02
    3.64932679e-02 -4.52661701e-02 -2.08016839e-02 -7.68605527e-03
    -4.14319634e-02 3.61006917e-03 4.29243967e-03 -3.30326855e-02
    -2.33354717e-02 -8.49848799e-03 1.74750853e-02 1.05047813e-02
    -6.85599586e-03 -4.88100061e-03 -3.94096449e-02 -3.67316455e-02
    1.51759777e-02 -3.38137075e-02 -4.04598489e-02 3.72520536e-02
    3.30895325e-03 7.91051388e-02 -6.96669985e-03 -3.75655852e-02
    -3.17345969e-02 -1.11714872e-02 -2.22347262e-05 1.59898624e-02
    1.36791551e-02 2.58561391e-02 7.10398555e-02 -1.72395669e-02
    -2.69839037e-02 -5.38262017e-02 1.63853623e-03 2.20365617e-02
    5.37361465e-02 9.93595645e-03 3.62485684e-02 6.94182469e-03
    -3.74396477e-04 -8.24442320e-03 -2.66055446e-02 -2.36743744e-02
    3.62134166e-02 -6.15610853e-02 -2.50013135e-02 1.99244544e-02
    1.28720533e-02 -3.50217856e-02 8.08054861e-03 -1.22291977e-02
    -1.87898949e-02 -5.28964354e-03 -4.12888713e-02 4.52660285e-02
    6.36372119e-02 6.26764297e-02 3.22233856e-04 8.96291900e-03
    -4.45944704e-02 1.65014807e-02 -1.21196629e-02 7.60354698e-02
    6.54470501e-03 5.45127802e-02 2.91022770e-02 1.44422194e-02
    1.15271928e-02 1.42893912e-02 6.84413081e-03 3.36399227e-02
    6.74434751e-02 9.87851410e-04 -9.62274708e-03 3.54192629e-02
    -3.83634795e-03 -1.44747447e-03 -2.94276950e-04 5.08832261e-02
    -1.30141173e-02 -3.45831662e-02 -4.22340035e-02 3.11270845e-03
    -1.01066614e-02 3.39486748e-02 -2.11566463e-02 1.61179097e-03
    1.77802145e-02 -2.89834868e-02 -4.51936312e-02 5.50579019e-02
    4.31536548e-02 1.89880412e-02 -5.74750453e-02 1.55746925e-03
    -1.45977335e-02 4.37342077e-02 -1.41741382e-02 8.44107717e-02
    9.91622508e-02 7.43502611e-03 -5.63736213e-03 -4.31566313e-02
    -1.03163635e-02 2.93580163e-02 6.90761060e-02 2.85240337e-02
    9.70590189e-02 9.93052963e-03 -5.58841564e-02 -3.30308662e-03
    -1.72299764e-03 -2.95227934e-02 -5.23438342e-02 1.02862027e-02
    -7.99260661e-03 1.99012067e-02 4.66749109e-02 6.54715393e-03
    -1.26559259e-02 -3.36047038e-02 -5.03501520e-02 -3.33579108e-02
    -2.57384516e-02 -1.71398919e-03 6.42274460e-03 4.76851538e-02
    -6.35244790e-03 -1.09072709e-02 -1.96266491e-02 9.28294938e-03
    -2.26166695e-02 2.06606230e-03 -5.28018922e-02 5.30808084e-02
    6.30666688e-02 -6.01485185e-03 5.74388131e-02 -3.47339325e-02
    -3.09955254e-02 -3.62407193e-02 -2.18880759e-03 -1.70622505e-02
    4.20451239e-02 2.06475817e-02 7.18280580e-03 -3.71142104e-02
    -2.56912932e-02 -4.69939737e-03 1.41737249e-03 -2.91972812e-02
    -4.54260930e-02 1.51561359e-02 1.10475356e-02 4.15487811e-02
    1.77448522e-02 8.74592084e-03 -5.96829653e-02 -2.19257195e-02
    -8.83598998e-03 -5.32360673e-02 -8.61652941e-03 1.19598163e-02
    -1.01123042e-02 2.23600660e-02 -3.55735794e-02 1.27184540e-02
    -1.28011638e-02 1.17675876e-02 4.36850870e-03 2.09005382e-02
    -4.09357324e-02 -1.07116997e-02 7.32623693e-03 -6.33433014e-02
    1.73851952e-03 2.14298461e-02 1.90652367e-02 -1.45526500e-02
    -2.04083715e-02 -4.59841499e-03 2.60112248e-02 9.97056346e-03
    -7.13398855e-04 -2.53565013e-02 -3.57303210e-03 4.86266753e-03
    -3.80234234e-02 -1.30987819e-02 -4.21649180e-02 1.01730600e-02
    1.78650022e-02 -2.27977261e-02 -2.74323337e-02 -3.90002914e-02
    -3.26655805e-02 -4.59809117e-02 -8.84428900e-03 3.57013308e-02
    1.54325343e-03 -8.32412485e-03 -4.67312410e-02 -2.55485531e-02
    -1.05177211e-02 -4.49844589e-03 -4.56179269e-02 -4.48872149e-02
    6.66692713e-03 8.66784900e-03 -3.24894604e-03 -3.25493328e-02
    -3.05172000e-02 -1.95473563e-02 -1.15773855e-02 -5.39667755e-02
    -3.20735723e-02 4.50115651e-03 -1.41782276e-02 9.60212480e-03
    -2.41516214e-02 -4.13404405e-03 -3.78498174e-02 -1.70679148e-02
    -4.27294895e-02 1.25934435e-02 -2.09294935e-03 -1.52919451e-02
    3.36521231e-02 -4.96862382e-02 -4.56402525e-02 -6.52235001e-02
    -6.42452538e-02 -4.49828058e-02 7.94594288e-02 4.98624984e-03
    1.03790192e-02 -9.72789899e-03 -8.41548387e-03 -2.35681590e-02
    8.57117865e-03 -3.23823728e-02 -2.79922765e-02 -4.20554820e-03
    1.36036444e-02 2.86889952e-02 -1.63973998e-02 -8.66495352e-03
    -4.94959205e-02 1.11894961e-02 -4.49093767e-02 -7.74462428e-03
    1.51656037e-02 -1.68085527e-02 3.49633470e-02 4.80464213e-02
    1.38931889e-02 2.79847924e-02 2.03214251e-02 -4.27391417e-02
    1.67596769e-02 6.27411976e-02 -4.31103073e-03 5.01718931e-02
    1.03427880e-01 4.75974530e-02 2.27250252e-03 7.25785363e-03
    -5.01731113e-02 8.15601926e-03 5.79576194e-02 9.45246033e-03
    2.15610154e-02 -3.27207819e-02 1.26588810e-02 -1.95023185e-03
    3.48612517e-02 3.67072634e-02 2.82011870e-02 2.28511561e-02
    -1.24857798e-02 -4.36580135e-03 -6.73485920e-02 -8.94002710e-03
    -7.29608834e-02 3.58717702e-02 1.21994214e-02 -3.56513038e-02
    -4.80183251e-02 -5.73367719e-03 -7.47808628e-03 4.74602245e-02
    3.75946499e-02 1.93400271e-02 2.09598783e-02 6.86359927e-02
    5.92286661e-02 5.84292412e-02 -2.50450596e-02 -3.80551722e-03
    -3.64719369e-02 -4.75860909e-02 4.17898595e-03 3.67742702e-02
    7.13195652e-02 1.16898688e-02 -2.32997965e-02 -2.35244595e-02
    2.71335850e-03 7.74527295e-03 3.95384580e-02 1.70785245e-02
    5.11290208e-02 6.12894539e-03 1.93565004e-02 -3.79153318e-03
    1.30149191e-02 1.10856083e-03 -1.84302218e-02 3.56917307e-02
    2.28412934e-02 1.17446212e-02 -8.32710974e-03 2.62076855e-02
    -2.48115063e-02 2.47252751e-02 -5.93305798e-03 -8.41017161e-03
    -2.66597681e-02 5.55150444e-03 -9.39015821e-02 1.22969067e-02
    3.96261662e-02 4.76875016e-03 -1.06554795e-02 -4.76950314e-03
    -3.64666879e-02 8.56059021e-04 3.04199234e-02 -1.77255832e-02
    4.66912165e-02 4.31000404e-02 -8.61750264e-03 5.38149616e-03
    4.21837159e-02 -1.27637340e-03 1.47950463e-03 -3.81190726e-03
    -5.58998063e-03 2.12365035e-02 3.43180518e-03 -6.33000908e-03
    -1.42909987e-02 4.10079099e-02 -2.61661038e-02 -5.21109207e-03
    -2.17036139e-02 1.99517347e-02 1.62170324e-02 -9.44174360e-03
    3.19693494e-03 2.57182904e-02 3.82060483e-02 -2.14093216e-02
    -3.92711200e-02 -2.17069313e-02 -9.97233763e-03 -2.08368972e-02
    -2.95712426e-03 -2.28715036e-02 6.44754767e-02 1.22206295e-02
    4.69893962e-03 -3.15471105e-02 -1.37480693e-02 -3.31723914e-02
    -1.32243289e-02 -4.37800549e-02 -3.24767046e-02 4.41819690e-02
    -3.95440385e-02 -8.81928429e-02 -8.97362945e-04 6.58978224e-02
    3.61605436e-02 -4.67864517e-03 -4.55711707e-02 -5.18577918e-02
    4.17935895e-03 -2.97836810e-02 1.38541937e-01 1.10567652e-01
    8.90742764e-02 1.95442215e-02 2.34564971e-02 -2.28600502e-02
    -7.11092576e-02 -1.40537828e-01 -2.28377171e-02 -6.83558825e-03
    6.32824562e-03 5.94525225e-02 7.25618377e-02 6.16198592e-02
    2.96453331e-02 -2.59220600e-02 -1.94998938e-05 -8.76534283e-02
    -7.11103436e-03 3.48321944e-02 6.80875406e-02 6.99394718e-02
    7.29612261e-02 8.12249854e-02 4.97604012e-02 -2.08609104e-02
    -3.54140735e-04 8.34853351e-02 9.59156174e-03 4.53344807e-02
    3.60345729e-02 -4.07835795e-03 9.75764729e-03 2.69283671e-02
    1.55530926e-02 -1.55974589e-02 -8.41599852e-02 -3.83252688e-02
    -1.02574406e-02 2.98183435e-03 -3.09865642e-02 2.39471439e-02
    4.14036326e-02 4.04827669e-02 -4.13754694e-02 2.66283508e-02
    2.73630582e-03 -7.94541847e-05 -1.24291715e-03 2.63719428e-02
    1.23870820e-02 3.97110134e-02 -4.06423677e-03 5.21737672e-02
    3.71720903e-02 1.46558823e-03 -1.06611457e-02 2.56135967e-03
    -2.72958260e-02 -5.89330941e-02 -7.26324022e-02 3.91157605e-02
    -3.69294509e-02 1.51015166e-02 9.54653621e-02 1.02397040e-01
    -3.57205607e-02 3.22838463e-02 3.65918651e-02 7.89659172e-02
    -1.88557860e-02 -2.72400919e-02 -7.87638724e-02 -2.06805598e-02
    3.18223499e-02 2.42122281e-02 5.14092948e-03 3.51175480e-02
    -1.04909099e-03 -1.86061393e-02 -2.68643219e-02 2.26323977e-02
    3.85828130e-02 3.06452252e-02 -5.40061109e-02 7.81897381e-02
    4.39419784e-02 2.83255358e-03 -2.14677937e-02 -2.08131108e-03
    -2.24572979e-02 2.16610692e-02 3.65250148e-02 5.51377423e-02
    3.11862677e-02 -1.46483332e-02 -4.38160151e-02 -2.10003015e-02
    -4.42762934e-02 1.60078835e-02 4.41255346e-02 -5.36933504e-02
    -6.40536621e-02 -3.53707075e-02 4.42947671e-02 3.03095765e-02
    -1.44718280e-02 -7.58047961e-03 -8.53654295e-02 -2.79837026e-04
    -4.08490300e-02 -2.00726297e-02 -6.35814741e-02 -1.30455540e-02
    -4.05941792e-02 -4.03605141e-02 -3.06551941e-02 2.02746708e-02
    3.51009332e-02 -1.42169166e-02 1.74326375e-02 -4.64529432e-02
    5.91885298e-02 2.92450506e-02 -1.00236185e-01 -3.02298367e-02
    -5.55338524e-02 7.69003434e-03 -3.50899063e-02 -2.48396695e-02
    1.16404367e-03 -2.34792791e-02 -8.05855989e-02 -1.34148858e-02
    9.92799830e-03 1.97859686e-02 1.20199993e-02 4.12306795e-03
    -1.93805508e-02 -2.54303869e-02 1.56731792e-02 4.69465032e-02
    7.11721182e-02 -5.02700778e-03 -3.80527857e-03 4.91135055e-03
    -3.05858925e-02 -5.39999604e-02 -5.85095286e-02 1.34020206e-02
    7.16646668e-03 -5.90829505e-03 2.39045359e-02 3.46544161e-02
    1.80358067e-02 5.01292525e-03 -1.44417528e-02 -1.45928888e-02
    6.48668557e-02 -6.18350459e-03 -3.20083089e-02 -5.86342067e-03
    -3.59816216e-02 2.48863455e-02 -6.35865033e-02 -6.42923191e-02
    -6.67150989e-02 -5.61365904e-03 -3.99505273e-02 -1.00151878e-02
    -4.47999835e-02 5.22195827e-03 4.44604047e-02 1.41012985e-02
    7.53343338e-03 1.98395569e-02 2.11329330e-02 -3.34625691e-02
    -3.42609845e-02 -2.73123384e-02 -1.73086522e-03 3.82838510e-02
    -4.06379402e-02 5.11228256e-02 -2.30089086e-03 6.23373874e-02
    -1.84453954e-03 -3.27696577e-02 -1.21965995e-02 -3.42380740e-02
    2.59410907e-02 -1.42792594e-02 5.30636683e-02 1.25951897e-02
    3.28981057e-02 -5.03098629e-02 -3.25895622e-02 1.53919607e-02
    -5.12463376e-02 4.93361503e-02 -2.80688866e-03 3.62762026e-02
    -5.25357984e-02 2.81884391e-02 -4.44439612e-02 -2.35429052e-02
    -6.91657662e-02 -2.11765245e-02 6.27628788e-02 3.76638724e-03
    7.02859387e-02 5.50497249e-02 3.47785912e-02 -8.99614114e-03
    -4.00978364e-02 -1.03348028e-02 -6.83262572e-02 1.84609201e-02
    -2.40020435e-02 3.73464450e-02 -3.74222212e-02 5.86987846e-02
    -7.03592412e-03 -3.43976431e-02 -3.34440172e-02 4.59859427e-03
    5.59004880e-02 -1.59556661e-02 4.93429340e-02 6.78864028e-03
    4.81183380e-02 -1.85491405e-02 -3.46571989e-02 -4.08307044e-03
    -2.55718865e-02 5.78248724e-02 -5.74407727e-02 8.23746249e-02
    -4.14049104e-02 3.45928706e-02 -6.83150142e-02 4.42670211e-02
    -1.01735048e-01 -5.87492511e-02 -5.22458833e-03 -7.28285126e-03
    1.71819944e-02 1.99772380e-02 -1.30698197e-02 1.47918276e-02
    -1.84762049e-02 6.47218898e-02 2.54023615e-02 -1.11408252e-02
    -4.48326059e-02 -3.04884128e-02 -1.01929702e-01 2.99219731e-02
    6.36728257e-02 -4.27384721e-03 -3.88472527e-02 2.85497736e-02
    1.31203150e-02 3.74440453e-03 -2.59583946e-02 2.75678076e-02
    3.30936338e-04 -6.27056658e-02 -8.57890844e-02 1.96708599e-04
    2.43494995e-02 6.98686810e-03 -3.76950391e-02 1.14321085e-02
    -7.32581541e-02 2.04758216e-02 -2.60650758e-02 2.82122586e-02
    -4.49523814e-02 2.23933775e-02 4.04869998e-03 2.43530683e-02
    -1.22080687e-02 2.06500553e-02 -5.96717410e-02 -3.08086183e-02
    -3.58595774e-02 6.65634200e-02 9.26536024e-02 1.55074205e-02
    -5.90870678e-02 -2.20050514e-02 -5.62614948e-02 -1.80483870e-02
    1.49592776e-02 2.66397465e-02 -3.44688967e-02 -3.46133932e-02
    -4.71244566e-02 -1.63170733e-02 -6.39949506e-03 5.41458279e-03
    1.29478406e-02 -2.69709043e-02 -8.55066255e-03 1.99733526e-02
    4.93158847e-02 1.80815589e-02 -5.21028750e-02 -5.42180389e-02
    -5.30363210e-02 4.86691520e-02 7.99866021e-02 6.73922896e-02
    -1.58570912e-02 1.95992067e-02 -1.38886524e-02 -3.80630381e-02
    -1.07003460e-02 1.35560744e-02 5.08092577e-03 -4.57752682e-02
    -2.00376250e-02 2.00024452e-02 9.01871733e-03 -3.42651531e-02
    -5.45107052e-02 -5.03827967e-02 -2.55017560e-02 -1.53353149e-02
    8.32053274e-03 4.56860103e-03 -7.99310859e-03 -1.53125217e-02
    1.66001748e-02 1.78923812e-02 8.37895460e-03 -2.08213367e-02
    -1.86595693e-02 1.68104712e-02 -1.10163977e-02 -2.71198452e-02
    5.26484512e-02 -2.82795876e-02 -4.48162518e-02 -4.25098576e-02
    -4.91461046e-02 -4.72802622e-03 4.32099476e-02 1.48431286e-02
    -1.26554500e-02 -5.96191501e-03 -2.19722521e-02 7.23770214e-03
    -1.92955602e-02 -1.90038793e-02 -5.30842803e-02 -1.86230671e-02
    2.44814456e-02 3.70253809e-02 1.05683589e-02 -4.27035093e-02
    -3.40006240e-02 -4.40069810e-02 -2.05752570e-02 -4.26328629e-02
    5.50130047e-02 3.28399055e-02 -2.90161911e-02 -4.18744646e-02
    -3.37440856e-02 -1.53712649e-02 -1.09864520e-02 -5.06689698e-02
    -9.96184349e-03 -2.11356599e-02 -5.26880249e-02 3.67326364e-02
    3.49316299e-02 -2.39125770e-02 -1.33822821e-02 -6.23333193e-02
    -2.83703376e-02 -4.20785211e-02 -5.27213188e-03 5.09199984e-02
    -9.31002293e-03 -7.96634145e-03 -2.86755338e-02 -1.88181102e-02
    5.68005210e-03 -1.36723360e-02 -7.59384967e-03 1.12668157e-03
    2.66081896e-02 4.06141095e-02 7.63008222e-02 -2.70220488e-02
    1.37957968e-02 -1.99691486e-02 -7.65378121e-03 -2.75499225e-02
    5.24048582e-02 4.40372787e-02 3.32056568e-03 1.39567517e-02
    -1.28138857e-02 5.13337879e-03 2.17397399e-02 -9.75563377e-03
    -6.46455865e-03 2.53407925e-04 -4.25279811e-02 6.65556043e-02
    2.66330261e-02 -1.48423703e-03 -3.66428234e-02 -4.99604223e-03
    6.05916092e-03 -2.51035057e-02 7.05606267e-02 5.88658918e-03
    -4.69989888e-02 1.46989031e-02 -3.59668918e-02 -5.83179761e-03
    8.07022974e-02 6.25957623e-02 -1.77428201e-02 1.04650855e-02
    -5.13440408e-02 -1.35279531e-02 -3.56278755e-02 -1.07518686e-02
    -3.41415145e-02 6.93268999e-02 5.10892011e-02 -1.20378360e-02
    -3.13601829e-02 -3.34990695e-02 -4.36018445e-02 2.49497239e-02
    1.71429757e-02 5.97313270e-02 4.59762476e-02 2.33957004e-02
    -9.09188204e-03 1.17822476e-02 -1.09204594e-02 -2.90847868e-02
    -2.41390872e-03 -4.09610420e-02 5.04403599e-02 7.41053522e-02
    4.51500714e-03 -3.23529132e-02 -2.89844144e-02 -3.71539705e-02
    -1.11222928e-02 3.04688117e-03 3.63647589e-04 5.33626825e-02
    -3.14233564e-02 3.41565371e-03 1.13743059e-02 -1.71716716e-02
    -6.57715695e-03 1.95373502e-03 -1.91903207e-02 1.33559173e-02
    -3.00576584e-03 3.70872281e-02 -2.17411462e-02 6.81003509e-03
    -1.91583727e-02 1.74756948e-04 7.42478855e-03 -1.56067004e-02
    -3.75369121e-03 2.47011334e-02 -4.77769338e-02 4.90831211e-02
    -3.33610596e-03 -4.58252318e-02 -2.12806761e-02 1.11738360e-02
    -2.62506846e-02 2.42066309e-02 -4.69994172e-03 1.37796169e-02
    7.60133658e-03 5.21993116e-02 -1.45926578e-02 7.36299576e-03
    3.43396291e-02 -2.40736641e-02 -5.27650444e-03 6.02744110e-02
    3.64460312e-02 -1.12550482e-02 1.44449174e-02 5.70424926e-03
    -2.43882798e-02 9.54814162e-03 -2.53089964e-02 8.33862752e-04
    -1.07667744e-02 -5.97883910e-02 -5.35250157e-02 -4.25155498e-02
    -7.59296566e-02 1.96756013e-02 -3.43268439e-02 -1.65400952e-02
    -6.13408722e-03 3.96913812e-02 2.14133840e-02 3.24827693e-02
    -1.55094760e-02 -3.29072564e-03 -3.12817656e-02 1.43846264e-02
    1.16917945e-03 2.15378422e-02 -3.97682277e-04 -2.04879325e-02
    3.44855189e-02 2.95355711e-02 -1.41666562e-03 3.93674038e-02
    6.07590284e-03 -3.72924060e-02 -5.98815233e-02 -3.80121283e-02
    2.41371468e-02 5.84669672e-02 5.91622293e-02 -4.86439690e-02
    -7.06296936e-02 -3.31475027e-02 -1.77043285e-02 -4.28023003e-02
    -3.31087410e-02 3.96708921e-02 8.16222057e-02 1.37043282e-01
    1.64287388e-01 5.25302105e-02 2.29932126e-02 -2.87463106e-02
    -5.10868654e-02 -9.27268527e-03 -2.46489816e-03 -9.20650922e-03
    -2.05527209e-02 -6.55533373e-02 -4.41994555e-02 -6.60721632e-03
    -1.77263711e-02 -4.71415669e-02 -5.95407654e-03 -2.02625226e-02
    -2.47397199e-02 3.86739848e-03 4.68628705e-02 2.80437693e-02
    9.93164442e-03 1.33810481e-02 -1.54959010e-02 -4.96746041e-02
    -4.10648212e-02 -6.86603263e-02 3.07504903e-03 8.55868682e-02
    5.18420637e-02 7.89390057e-02 1.12361498e-01 1.96747687e-02
    -3.83189023e-02 2.95020044e-02 -1.86744835e-02 -5.36812581e-02
    -5.94505705e-02 -7.37430388e-03 3.06019131e-02 -2.26422958e-03
    -4.32780832e-02 -4.53248853e-03 3.62486392e-02 -1.28716640e-02
    2.03352626e-02 2.64441539e-02 5.19761853e-02 7.97872022e-02
    7.71240667e-02 3.63953002e-02 -1.24590527e-02 1.43588837e-02
    -2.52956208e-02 -2.00613886e-02 -8.18269774e-02 3.82779445e-03
    6.45984113e-02 9.21139792e-02 -1.30724460e-02 -3.30575034e-02
    1.49282701e-02 1.54357791e-01 1.23984687e-01 6.11503907e-02
    -5.55562116e-02 -1.00688329e-02 -1.65700745e-02 -1.23525569e-02
    -3.20994891e-02 2.15534098e-03 6.37633502e-02 2.29230747e-02
    -4.55369949e-02 -3.55426371e-02 -9.37266683e-04 2.16607526e-02
    -3.73055600e-02 -1.71267278e-02 2.58751679e-02 1.07099295e-01
    1.59947440e-01 6.60465285e-02 -6.79179654e-02 -8.12858194e-02
    -8.67231339e-02 -4.13787588e-02 -5.49158044e-02 2.15828735e-02
    6.06010221e-02 9.59012061e-02 -4.27082041e-03 -1.72344130e-02
    -4.46605608e-02 5.90251833e-02 3.16901170e-02 -5.54812402e-02
    -7.57213011e-02 -9.41816494e-02 -3.87112051e-02 -1.36107691e-02
    -1.02039753e-02 7.11741904e-03 5.83107546e-02 -1.25199240e-02
    8.91180057e-03 6.22666907e-04 2.39562690e-02 -2.99576782e-02
    -3.37152928e-02 1.06194988e-02 -3.08724027e-02 4.32679988e-03
    6.15612082e-02 -8.97803716e-03 3.90684158e-02 4.98658232e-02
    1.05162218e-01 1.44016266e-01 2.19979919e-02 -2.55499370e-02
    -3.45067084e-02 2.91440692e-02 -5.00245020e-02 3.10882442e-02
    -6.99688047e-02 -8.01780075e-02 -2.44610924e-02 1.90819753e-03
    5.29533997e-03 4.65302877e-02 -4.04359736e-02 1.03954365e-02
    -1.13073261e-02 1.04228891e-02 -6.34419965e-04 -2.70097218e-02
    -4.65290825e-04 -1.26262875e-02 1.72798027e-05 -4.25415896e-02
    -2.73276940e-02 -6.65107928e-03 -1.96001995e-02 -2.64958292e-03
    2.41645612e-02 -2.70403624e-02 6.94539770e-02 -5.22075081e-03
    -2.17943452e-03 -3.35858613e-02 -8.06178972e-02 -8.55428353e-02
    1.09776771e-02 1.74605325e-02 1.54392906e-02 6.51497976e-04
    2.22951360e-02 3.06500476e-02 8.37019086e-03 2.96929870e-02
    -1.70460287e-02 2.71761622e-02 4.86005992e-02 1.51715130e-02
    -1.52127314e-02 3.28725972e-03 1.52017865e-02 1.62644647e-02
    -1.95784848e-02 4.23945934e-02 -6.45194808e-03 3.59727591e-02
    1.97473802e-02 -7.06657907e-03 -1.97225884e-02 9.68174543e-03
    -6.68681518e-04 5.71017573e-03 -2.56847497e-02 -3.70706692e-02
    1.31545300e-02 4.12397494e-04 3.76727222e-03 -2.85587478e-02
    -9.35491547e-03 2.31052432e-02 -5.67773677e-05 -8.31026211e-03
    1.92545564e-03 1.09925248e-01 -2.38080453e-02 1.80849377e-02
    -2.78712660e-02 2.15157680e-02 -6.39420329e-03 -2.66510919e-02
    -5.39444499e-02 1.95940398e-03 7.61960670e-02 7.09493086e-03
    -8.84445757e-02 -5.74874273e-03 1.19323023e-02 2.71287635e-02
    1.94877554e-02 2.99806688e-02 -1.64140612e-02 -7.34571787e-03
    -1.38709089e-02 -2.89796367e-02 -4.51651998e-02 6.82813814e-03
    1.50307976e-02 -1.65550914e-02 -3.93248498e-02 2.64867898e-02
    -5.28785549e-02 -1.49628837e-02 2.27517132e-02 4.07537371e-02
    -2.39217747e-02 8.32698774e-03 -4.44048122e-02 -4.41460032e-03
    8.45678675e-04 6.10086210e-02 4.24674749e-02 2.66840979e-02
    4.95739095e-02 5.54252462e-03 -7.89085217e-03 1.88912638e-02
    -5.35876863e-02 -4.23573365e-04 -1.13414405e-02 7.65983462e-02
    -4.09472585e-02 -2.02227160e-02 -1.73879378e-02 -1.54425027e-02
    -6.21508025e-02 -1.07946871e-02 -9.17484984e-04 9.00424900e-04
    -8.41681585e-02 2.96973977e-02 -1.29529145e-02 -5.70811741e-02
    -1.89354159e-02 -8.86540674e-03 -4.03519645e-02 -2.69492362e-02
    1.22697838e-02 -3.77782173e-02 4.97692265e-02 7.67338499e-02
    -1.38931163e-02 3.19516174e-02 -2.90308073e-02 -3.94657627e-02
    -2.83012222e-02 2.27061193e-02 1.86050665e-02 1.69812739e-02
    1.53618380e-01 1.21601429e-02 2.50829477e-02 2.04443373e-02
    -5.26450016e-02 -2.63942275e-02 -3.07440888e-02 5.03534935e-02
    -3.95124070e-02 -1.40128564e-02 -5.84382191e-02 -1.75492163e-03
    -2.75029242e-02 7.80872814e-03 -2.62997430e-02 2.15833839e-02
    -2.04412453e-02 -1.15270382e-02 -1.72943193e-02 -6.25139028e-02
    -2.23981533e-02 -3.35852094e-02 -4.76358458e-02 -5.28398119e-02
    4.16058600e-02 3.79460268e-02 5.49526997e-02 8.88397545e-02
    -1.05604291e-01 -2.05853470e-02 -2.26245075e-02 -2.64476072e-02
    -4.13085893e-02 -2.13267263e-02 -1.07630892e-02 1.52439382e-02
    5.71531542e-02 -4.16714288e-02 -1.22266943e-02 3.60902352e-03
    -6.01988994e-02 -1.03397314e-02 3.63889039e-02 2.39000730e-02
    -6.56750128e-02 -4.87762950e-02 -2.59013679e-02 4.39394219e-03
    -5.25525734e-02 -8.66578054e-03 -3.69727574e-02 3.77775282e-02
    1.10467710e-02 5.53946830e-02 1.86101031e-02 -2.59178504e-02
    -2.99769291e-03 -3.75358835e-02 -4.64511998e-02 -5.20253517e-02
    1.66944899e-02 6.13578334e-02 -1.46010360e-02 -2.19050720e-02
    -2.47202292e-02 -5.85721759e-03 -1.15875509e-02 -2.01579705e-02
    -1.76628102e-02 2.14367379e-02 -2.93859094e-02 3.88378203e-02
    1.23797152e-02 -1.34350900e-02 -6.31024782e-03 -1.79707780e-02
    1.38929370e-03 -4.56772670e-02 2.62529869e-02 -1.12083065e-03
    2.20877044e-02 -1.65758282e-02 -6.16222210e-02 -1.88826472e-02
    -2.22737007e-02 -3.73243652e-02 -3.93018126e-02 1.14385914e-02
    1.90655142e-02 1.69951320e-02 6.20747395e-02 -6.02882914e-02
    -5.79497479e-02 -8.30955654e-02 -6.08652495e-02 -3.09053902e-02
    2.80131325e-02 5.89289181e-02 1.78796034e-02 -3.22057121e-02
    -5.57601079e-02 -6.57851854e-03 4.44825133e-03 -1.70876812e-02
    -2.97629908e-02 -1.87072791e-02 -3.67143899e-02 2.29283189e-03
    2.19532419e-02 -6.16161488e-02 -4.59812172e-02 -8.50996189e-03
    -5.23411892e-02 -2.55342200e-02 1.18873958e-02 -8.17641057e-03
    8.87321588e-03 7.72863626e-02 -8.06589052e-03 4.66614263e-03
    3.27083915e-02 1.14638973e-02 4.15533967e-03 5.12422733e-02
    3.36505063e-02 3.79415229e-02 1.28899505e-02 1.03057995e-02
    -5.26429228e-02 -8.85395985e-03 -7.06695020e-03 1.18432026e-02
    7.81244636e-02 3.55826691e-02 -3.31855845e-03 2.16864794e-02
    -2.85823662e-02 -2.02469751e-02 3.57081667e-02 -4.77368943e-03
    -2.84925029e-02 1.82313174e-02 1.93910189e-02 2.55202670e-02
    5.68262413e-02 1.99183845e-03 -2.26426404e-02 1.21020218e-02
    1.21671809e-02 2.10281052e-02 7.06880614e-02 3.63365561e-02
    6.82345126e-03 4.45191003e-02 6.56084195e-02 1.15124859e-01
    5.10043427e-02 2.20985282e-02 5.66747077e-02 6.04054295e-02
    1.71038918e-02 -1.82351228e-02 -3.57097834e-02 -1.00379698e-02
    6.30626827e-02 5.59864119e-02 5.99918282e-03 -3.20806801e-02
    -2.96011195e-03 -8.85607209e-03 1.94719080e-02 4.55241352e-02
    2.91699264e-02 9.07471776e-02 5.64489178e-02 -1.57811027e-02
    1.42558140e-03 7.41130067e-03 1.34566770e-04 -9.71055124e-03
    -4.63497303e-02 -1.25089847e-03 2.79483534e-02 3.09111062e-03
    -6.62274286e-02 -3.21080200e-02 -4.81359288e-02 -1.97782330e-02
    -2.78029591e-03 -4.44853492e-02 1.37385968e-02 4.70548086e-02
    -2.80108023e-02 -7.74095487e-03 -2.68919580e-03 -4.07566763e-02
    -1.15999468e-02 -4.45776666e-03 -5.62322419e-03 1.48973595e-02
    -3.16888317e-02 -2.04163678e-02 -6.15575397e-03 2.88673863e-02
    -2.53757965e-02 1.15361204e-02 -9.43950377e-03 -1.69794597e-02
    4.76882160e-02 2.56327372e-02 -1.10478457e-02 2.29120590e-02
    1.78531632e-02 -1.98534527e-03 -1.43963341e-02 3.44853178e-02
    -2.94765998e-02 3.10188532e-02 5.03655896e-02 -1.70375109e-02
    2.83855386e-02 3.10921129e-02 -1.37018552e-02 7.06001511e-03
    6.04266934e-02 -1.51480576e-02 -8.73103924e-03 1.47840725e-02
    1.52906412e-02 2.91510927e-03 -2.83788666e-02 -4.05593812e-02
    -4.28566756e-03 -3.20419930e-02 1.35145104e-02 -1.51587985e-02
    -3.06943394e-02 -2.97850068e-03 -7.31120491e-03 -4.83220071e-03
    3.80395004e-03 1.02017140e-02 1.03823254e-02 -2.75100432e-02
    -9.70700290e-03 2.54190173e-02 2.66604219e-03 1.54496275e-03
    -2.98364963e-02 -2.06047483e-02 -1.39698340e-02 -2.85547785e-02
    6.44338951e-02 1.66010093e-02 1.84174944e-02 -1.98338125e-02
    6.50979346e-03 9.76986904e-03 2.59304512e-02 2.35655699e-02
    -1.75942760e-02 -4.34653193e-04 -2.96747293e-02 2.90274173e-02
    1.33954640e-02 -2.65669357e-02 3.99774350e-02 1.19464789e-02
    2.16765106e-02 4.20115795e-03 -9.81536601e-03 -7.81607535e-03
    8.20802990e-03 -5.03680632e-02 -2.89564114e-02 -1.32741425e-02
    -9.25513264e-03 1.82983335e-02 -2.80268807e-02 1.44409714e-02
    7.11183017e-03 -2.19010971e-02 -1.99380573e-02 -2.31463946e-02
    -9.80974734e-03 2.07856540e-02 5.59285143e-03 3.00014694e-03
    2.60446523e-03 1.53020453e-02 -2.82219611e-02 -3.60719375e-02
    -3.79529931e-02 -1.90882683e-02 -3.08782440e-02 1.58392955e-02
    -1.45841958e-02 -5.39909266e-02 -3.96366753e-02 -3.03707621e-03
    1.88533659e-03 -2.09747907e-02 -2.46868525e-02 -3.46593373e-02
    -1.92983206e-02 -1.28368912e-02 2.45746747e-02 2.64438428e-03
    -1.82179026e-02 -2.68768845e-03 -3.38589400e-02 -1.10144252e-02
    -7.93307945e-02 -2.83752512e-02 9.07636341e-03 -8.97561666e-03
    1.50030693e-02 4.34009396e-02 1.27494233e-02 1.68804191e-02
    -1.59999914e-02 -2.43069027e-02 -2.34744232e-02 5.49165979e-02
    1.82149168e-02 1.63867604e-02 -5.45042381e-03 2.85334438e-02
    2.18257913e-03 2.29180846e-02 1.31688826e-03 -5.20129316e-03
    -1.03589185e-02 4.33650753e-03 -4.29827869e-02 -2.35781819e-02
    -3.63879837e-02 1.25151593e-02 4.42683473e-02 -1.89858244e-03
    -1.86551716e-02 -1.62311122e-02 -5.97875426e-03 -1.70150027e-02
    2.11308599e-02 3.53718325e-02 1.71994325e-02 4.50538844e-02
    5.17887250e-02 8.26644450e-02 8.88978317e-03 9.66983382e-03
    -4.43314947e-03 -3.61216031e-02 -1.37501918e-02 -1.65385287e-02
    -4.84732240e-02 -2.62209512e-02 -6.20300807e-02 -3.96414660e-02
    -2.69595459e-02 -4.11171988e-02 1.60660911e-02 2.16037091e-02
    -2.31636539e-02 -5.05092070e-02 3.17728855e-02 8.78420193e-03
    -7.73077160e-02 1.05572515e-03 9.30639729e-03 -2.46551121e-03
    -8.13309699e-02 -1.14028521e-01 -8.39386061e-02 1.41523480e-01
    7.84938484e-02 -1.94654875e-02 -2.90466119e-02 -1.54204760e-02
    1.07275358e-04 4.19420972e-02 5.29203145e-03 -6.40835464e-02
    3.37681547e-02 5.53949848e-02 -4.39643115e-02 1.59001630e-02
    -5.55426208e-03 -1.49709191e-02 -4.45392216e-03 -9.56878625e-03
    -6.15169592e-02 9.38807353e-02 8.65382776e-02 -4.22179513e-02
    -3.98394354e-02 -1.79147087e-02 1.90045778e-02 -1.41537087e-02
    4.24311496e-03 -2.05391869e-02 6.55222591e-03 1.60561390e-02
    -5.37229441e-02 -2.53613247e-03 -2.49124481e-03 2.18595434e-02
    -1.20914057e-02 -7.52964895e-03 -3.57788876e-02 3.32632363e-02
    5.24171777e-02 -7.19882026e-02 -6.36256784e-02 -7.06653664e-05
    1.92132536e-02 -4.99943979e-02 1.27025321e-02 -1.26688825e-02
    3.74233536e-02 -1.29253836e-02 -3.64481402e-03 -3.51447170e-03
    -1.03992000e-02 -1.14344982e-02 3.94544564e-02 -1.80561226e-02
    1.70376079e-04 6.61532357e-02 1.23219844e-02 -1.77470222e-02
    2.26138765e-03 2.46270560e-02 -1.69997104e-02 -1.58762205e-02
    -1.99629809e-03 -1.80792436e-02 1.94188748e-02 3.44917886e-02
    -3.94852422e-02 1.74532495e-02 1.34884631e-02 5.99606708e-02
    -6.33153552e-03 -1.12985810e-02 -3.69125828e-02 4.84478101e-02
    2.27682013e-02 2.87600271e-02 5.88003732e-03 -2.24053022e-02
    -1.28023222e-03 -4.05770950e-02 -3.04393675e-02 -1.53145306e-02
    3.04208547e-02 2.70011686e-02 1.52763957e-02 6.30359259e-03
    1.31261088e-02 -2.48907339e-02 -3.74967989e-04 -1.10516213e-02
    -2.95090880e-02 -3.75311752e-03 2.80404352e-02 -2.01690421e-02
    1.89453289e-02 -1.33208921e-02 -6.09498564e-03 4.45402302e-02
    -1.85319094e-03 -4.03864346e-02 -7.63185509e-03 3.54349390e-02
    -3.31030339e-02 2.47255452e-02 3.25129032e-02 1.28924558e-02
    1.20017992e-03 1.91888995e-02 6.64999196e-03 5.49489856e-02
    1.78417619e-02 2.79976856e-02 -4.66311350e-03 -3.19563672e-02
    1.11924205e-02 1.66804511e-02 3.51999514e-02 -1.67757813e-02
    4.23223712e-02 2.18322147e-02 1.57936085e-02 1.45122698e-02
    -2.59541795e-02 -3.50035392e-02 1.60511583e-02 1.04885017e-02
    1.81142855e-02 1.99314281e-02 2.86678188e-02 -2.02216823e-02
    2.86164490e-04 2.28184443e-02 -2.13118903e-02 2.72224937e-02
    -2.65430510e-02 -6.05888851e-03 8.93664081e-03 -3.36748519e-04
    -1.17776059e-02 2.30535492e-02 1.69164389e-02 5.95054813e-02
    3.51688005e-02 5.84318824e-02 -8.04469455e-03 2.21410729e-02
    3.31587642e-02 -1.25645632e-02 -1.63830686e-02 -1.20392321e-02
    4.35464736e-03 4.07539792e-02 3.89881022e-02 6.68918481e-03
    -1.11382483e-02 -3.95756923e-02 3.56510282e-02 -2.17518373e-03
    2.59516463e-02 3.13384049e-02 2.30998117e-02 1.49466824e-02
    -3.34274732e-02 -9.93112195e-03 -1.93039712e-04 -2.04620510e-02
    -1.53935216e-02 -1.67355891e-02 -1.17896404e-02 1.39463395e-02
    1.14255007e-02 2.53956579e-02 7.08121946e-03 1.90043167e-04
    -1.05357990e-02 -1.16131650e-02 -2.60814894e-02 4.09989841e-02
    -8.62755638e-04 4.19240557e-02 -1.65488832e-02 2.80503668e-02
    1.60343461e-02 -4.00700280e-03 -4.32101861e-02 -2.74132676e-02
    1.81007534e-02 2.57006735e-02 -6.66262675e-03 8.27984419e-03
    5.48823290e-02 -3.04593779e-02 -1.50702824e-03 -5.26531115e-02
    1.85117740e-02 4.80847768e-02 -1.92813314e-02 5.20531833e-02
    -1.83729064e-02 3.06111434e-03 1.33561194e-02 -2.01870855e-02
    1.01749022e-02 1.96723696e-02 3.91438883e-03 -2.40435731e-02
    -3.08672916e-02 -1.51512409e-02 8.57156888e-03 -1.15478756e-02
    1.68712204e-03 -2.10005175e-02 1.59420408e-02 1.95717569e-02
    1.92453694e-02 4.04820889e-02 -1.44282179e-02 2.83802375e-02
    -5.82116377e-03 -5.72802685e-03 -2.35876273e-02 2.56505106e-02
    1.47350896e-02 9.09152254e-03 2.48474535e-02 -7.63452286e-03
    1.72066130e-02 9.22755245e-03 7.74722453e-03 3.03156488e-03
    9.59211588e-03 1.11042140e-02 5.89744002e-03 1.65922418e-02
    -6.21468481e-03 -2.02556024e-04 -9.77247767e-03 -1.16241304e-02
    -1.05400467e-02 4.41447832e-03 8.99133179e-03 -1.46044430e-03
    2.39617620e-02 -2.15638569e-03 8.16032523e-04 -9.27025918e-03
    -4.64621447e-02 -3.54891010e-02 -2.48414204e-02 3.13195549e-02
    3.42621990e-02 7.02764690e-02 3.72998044e-02 3.72230969e-02
    2.49833055e-02 1.97073705e-02 -2.24740133e-02 -1.94339268e-03
    1.75630972e-02 1.93274096e-02 1.30509818e-02 3.04630268e-02
    2.00224519e-02 2.04328038e-02 -1.01132346e-02 2.25030351e-02
    2.81266440e-02 1.35578178e-02 4.29892796e-04 1.94653717e-03
    -5.63981663e-03 7.82164000e-03 -2.26384308e-02 -9.68441740e-03
    -2.09646784e-02 2.07968391e-02 -4.89661377e-03 4.10926454e-02
    2.84944777e-04 3.34016532e-02 -8.49465746e-03 1.27219195e-02
    -1.25769805e-02 4.41235416e-02 -5.81233809e-03 6.40084641e-03
    3.30267623e-02 4.16305959e-02 6.91489270e-03 1.46384975e-02
    5.22700092e-03 -2.25546658e-02 2.52002217e-02 9.59989440e-04
    2.95043979e-02 4.34611030e-02 4.33819816e-02 5.59606403e-03
    3.03842276e-02 -3.31961550e-02 -7.75820203e-03 -3.39260139e-02
    8.47331434e-03 -3.96174118e-02 2.20506247e-02 2.74662729e-02
    -1.77635043e-03 -3.50232497e-02 1.20126980e-03 -6.82074856e-03
    -8.64464231e-03 2.80617445e-04 -8.07948783e-03 1.09725574e-03
    -1.32951168e-02 -2.14406755e-02 5.58926817e-03 -7.02656619e-03
    -3.46775427e-02 3.31672207e-02 8.81651342e-02 7.31139109e-02
    -1.26605481e-02 2.69082189e-02 4.72572679e-03 -1.19186239e-02
    -4.94643077e-02 2.79657468e-02 -2.83908974e-02 4.74885292e-03
    6.87672058e-03 2.36811768e-03 -3.03579792e-02 4.35341056e-03
    -3.08184922e-02 -1.64067671e-02 1.32610360e-02 -1.98755600e-03
    3.85601483e-02 -7.17255101e-03 4.68836725e-03 -1.31890485e-02
    3.30278128e-02 -3.48873809e-02 3.22556943e-02 2.52438616e-03
    1.31146070e-02 3.06554418e-02 4.50153183e-03 -3.93149862e-03
    -2.89662629e-02 1.44670941e-02 -1.80004444e-02 4.16877456e-02
    5.33565059e-02 -1.33291204e-02 -3.24352905e-02 -2.11973162e-03
    1.89568891e-04 -1.31542124e-02 -3.04941204e-03 6.59249956e-03
    2.17135623e-02 4.03894857e-03 -4.78784293e-02 -2.02431381e-02
    5.52752847e-03 -1.57731995e-02 1.54700102e-02 4.92020091e-03
    -4.86846343e-02 -3.10552376e-03 -1.08820079e-02 2.71845405e-04
    6.85605779e-03 -2.02437285e-02 -1.20917696e-03 2.15548798e-02
    6.82871090e-04 3.69023159e-03 1.94991957e-02 8.63399357e-03
    -2.23028269e-02 1.19160293e-04 -1.39934802e-02 -1.90844219e-02
    2.45920513e-02 5.12648188e-02 -2.94899680e-02 2.41979342e-02
    1.52452150e-02 -1.53455306e-02 -5.65609485e-02 -4.33911346e-02
    4.95439172e-02 1.43173439e-02 -2.02914514e-02 -2.26938073e-02
    1.18755838e-02 -2.05126666e-02 1.40696513e-02 8.27126030e-04
    -3.72297280e-02 2.44998131e-02 2.42900141e-02 -1.52688390e-02
    -7.23493425e-03 4.19159271e-02 2.45223604e-02 1.26133757e-02
    -2.62096315e-03 7.84644950e-03 -2.77820937e-02 4.08276618e-02
    -6.15786202e-03 -1.81506798e-02 3.73872593e-02 4.12095850e-03
    -5.22754760e-03 6.71602925e-03 3.33730392e-02 -1.57642737e-02
    2.00991891e-02 -2.83140820e-02 -9.99088120e-03 6.83804303e-02
    7.70300953e-03 4.69122035e-03 1.92308668e-02 -1.38922092e-02
    6.45889044e-02 -2.11321767e-02 -3.28647759e-04 -2.79320367e-02
    2.31429245e-02 5.55903874e-02 -3.87597084e-02 -2.70030857e-03
    3.31114419e-02 5.31348726e-03 1.26664387e-02 2.10028328e-02
    -1.27714481e-02 -3.23869176e-02 -2.38314131e-03 -6.33322541e-03
    -3.56988162e-02 3.39778997e-02 1.96530968e-02 -1.61531642e-02
    -3.40908184e-03 -3.20552811e-02 2.49019708e-03 7.24227354e-03
    2.46895552e-02 1.03668189e-02 5.28205838e-03 1.88658980e-03
    2.13463195e-02 2.53957193e-02 -1.42945545e-02 2.71633174e-02
    2.70347968e-02 -1.51482616e-02 -2.86351237e-03 -1.82015412e-02
    -1.90742891e-02 6.74508838e-03 9.21052694e-03 1.98168755e-02
    -3.06273624e-02 1.65590793e-02 -2.95358673e-02 -3.46832424e-02
    1.44157447e-02 1.42678642e-03 2.30690395e-03 -1.78699084e-02
    1.24214888e-02 -2.36704722e-02 3.26461494e-02 2.91077532e-02
    3.36650090e-04 5.32071805e-03 -8.28020368e-03 3.19642434e-03
    1.75426807e-02 2.23832149e-02 8.92703421e-03 2.55767200e-02
    2.40739132e-03 1.69238616e-02 4.52904478e-02 -2.96243690e-02
    3.02074663e-02 -5.46470867e-04 -6.91200723e-04 2.39782128e-02
    1.02811744e-02 3.26536670e-02 4.26000990e-02 2.50952858e-02
    3.78029025e-03 -1.61175206e-02 -1.69299189e-02 2.03771610e-03
    -3.82492505e-02 -2.01994162e-02 -2.65006367e-02 -1.40266232e-02
    -1.50116743e-03 2.82517541e-02 -6.12182170e-02 3.09502240e-02
    -3.09989192e-02 -2.60143187e-02 -1.64070055e-02 2.38813320e-03
    1.50477206e-02 -3.66418883e-02 -2.26049181e-02 -7.98056554e-03
    -3.67665142e-02 -3.78346839e-03 2.88994866e-03 7.24041043e-03
    -1.59019232e-02 -1.59617362e-03 8.50136112e-03 -4.52062637e-02
    2.11250177e-03 1.18148690e-02 -1.11182723e-02 1.28056984e-02
    -1.41841704e-02 2.16388013e-02 4.67996299e-02 -2.50785076e-03
    1.91400498e-02 -1.34532116e-02 -2.60156188e-02 -6.32680440e-03
    8.71164910e-03 -2.34025856e-03 -1.37607371e-02 -8.38728342e-03
    -1.89411384e-03 2.04584748e-02 8.51416960e-03 1.68440361e-02
    3.02984426e-03 -4.21440855e-05 2.26383228e-02 2.49915905e-02
    -2.38492843e-02 2.96323504e-02 -3.05309109e-02 1.93892736e-02
    9.55524668e-03 -2.63980310e-02 -3.62070091e-02 -1.97058748e-02
    -2.46750619e-02 -3.70122935e-03 -8.79458059e-03 7.10861245e-03
    2.74577122e-02 -4.65734536e-03 -3.58425528e-02 -1.08836079e-02
    -2.41048969e-02 3.81989367e-02 8.54306854e-03 -6.47829659e-03
    2.06629578e-02 -6.79812673e-03 -6.24556728e-02 -1.89805985e-03
    6.22806558e-03 -6.81747962e-03 5.61641855e-03 -4.32484318e-03
    -1.79090854e-02 2.82618832e-02 2.19391547e-02 -4.26548645e-02
    -9.56855342e-03 1.36624081e-02 1.33910100e-03 3.00860927e-02
    -6.28183875e-03 -2.36044824e-02 1.76758436e-03 -8.83483619e-04
    -3.42162699e-02 -4.32842299e-02 -5.05753942e-02 -1.20620336e-02
    -1.58459251e-03 -4.17758040e-02 -7.98101723e-03 -3.64005156e-02
    6.01511495e-03 -2.30621770e-02 -3.27175148e-02 -2.04284396e-03
    -1.53371962e-04 -1.84361916e-02 -2.32595503e-02 -7.12963426e-03
    3.26065309e-02 5.30940518e-02 -1.21005401e-02 1.01216706e-02
    8.27632193e-03 8.04043375e-03 -1.11623444e-02 -1.86157301e-02
    4.68530878e-02 3.10006887e-02 4.70806099e-02 7.42211647e-04
    -1.24195451e-02 1.74267087e-02 1.38868121e-02 2.54878085e-02
    1.17469877e-02 6.97719445e-03 -4.04838193e-03 3.21128070e-02
    1.69340074e-02 6.11492957e-04 -2.54361145e-02 1.70311015e-02
    1.96114834e-02 -7.97608495e-03 -1.06887063e-02 1.72547568e-02
    2.36360095e-02 -1.06004886e-02 -5.36821671e-02 -2.46216599e-02
    1.40699623e-02 3.32922884e-03 1.28221801e-02 2.33134553e-02
    -2.22395337e-03 1.41906505e-02 -8.06858018e-03 -5.89994015e-03
    -2.25151004e-03 7.48131471e-03 1.81708857e-02 4.73265490e-03
    -2.61110906e-02 3.14447470e-02 4.64962446e-04 1.33132096e-03
    2.93404656e-03 -8.39676056e-03 -9.58291814e-03 2.56429370e-02
    -1.69587899e-02 -2.96456330e-02 1.09726870e-02 5.77196339e-03
    -5.30325342e-03 -4.23963778e-02 -1.94840524e-02 -1.10573424e-02
    6.97772484e-03 -4.38867463e-03 -2.95808651e-02 -2.87479535e-02
    1.31127760e-02 -8.60031135e-03 5.02811046e-03 -2.49885749e-02
    -1.04668681e-02 2.09498834e-02 5.99889038e-03 2.34529655e-02
    -4.75008227e-02 5.26972162e-03 3.76352854e-03 -1.05499756e-02
    -2.38130745e-02 -7.37297395e-03 4.04855832e-02 -3.35162282e-02
    -4.79514943e-03 7.81323202e-03 -3.40184905e-02 1.79003812e-02
    8.85808654e-03 -9.02953744e-03 2.29424387e-02 1.10866269e-02
    -1.90025419e-02 1.99240278e-02 -2.41522156e-02 3.59061919e-02
    1.56700052e-02 1.59763193e-04 6.12046756e-03 6.82514627e-03
    -4.75959823e-04 -4.77413274e-02 1.14949485e-02 -4.45876224e-03
    -2.45898217e-02 1.08201345e-02 -3.99644338e-02 -3.81252822e-03
    -2.06713341e-02 1.73151921e-02 3.23061622e-03 2.75995396e-02
    1.84872132e-02 1.92200132e-02 -1.22426860e-02 -3.32721248e-02
    -1.92420688e-02 -1.63567234e-02 -8.35797808e-04 -1.32479435e-02
    -4.22319323e-02 5.62555436e-03 2.49639470e-02 -1.67834572e-02
    3.69947078e-03 -1.47518180e-02 -4.29819990e-03 -1.58700887e-02
    -1.72687937e-02 1.66786686e-02 -3.74581739e-02 -9.96244326e-03
    7.55481888e-03 -1.25979669e-02 -4.63031717e-02 -8.95074848e-03
    -1.25546632e-02 2.35423669e-02 -2.05930080e-02 1.23894610e-03
    -4.82668467e-02 1.45298860e-03 -6.30899146e-03 -1.83236247e-04
    -1.78453177e-02 2.95304153e-02 -8.60432815e-03 2.95907576e-02
    3.51104289e-02 2.60174591e-02 -1.07563771e-02 1.84638537e-02
    2.90455669e-02 -2.70400196e-02 2.45451368e-03 -4.39179838e-02
    -2.12007351e-02 1.01173790e-02 1.96715146e-02 1.95238106e-02
    1.81845762e-02 -2.41126977e-02 1.40527962e-02 -2.44169924e-02
    -3.25898826e-03 -7.52530200e-03 1.18021676e-02 3.30901183e-02
    -7.19341915e-04 -4.52854000e-02 -5.03749703e-04 -4.74701822e-02
    -5.32760471e-03 4.82277200e-02 1.32506453e-02 -7.69033954e-02
    -2.29383111e-02 3.50636877e-02 -1.46526033e-02 -1.10084219e-02
    2.22646836e-02 1.86808985e-02 -1.12493448e-02 2.96092704e-02
    3.98386791e-02 1.69928316e-02 -1.73096936e-02 -1.80404410e-02
    1.28788650e-02 6.50814595e-03 -1.89570691e-02 -2.04733629e-02
    1.94410812e-02 -3.05708051e-02 2.26562023e-02 -2.64294837e-02
    1.45482179e-02 -2.56919432e-02 -3.03036161e-02 1.85107682e-02
    2.78013144e-02 3.46508473e-02 2.40244111e-03 2.77811894e-03
    1.34208696e-02 1.72169413e-02 -1.77697390e-02 8.10883287e-03
    6.35044789e-03 1.02096545e-02 -5.54727856e-04 -9.36893281e-03
    3.25162448e-02 1.68197136e-02 8.69958568e-03 -2.19442435e-02
    -6.42036181e-03 2.09393129e-02 1.58514176e-02 -6.43612910e-03
    3.30245346e-02 -4.16946306e-04 1.29411696e-02 3.54705974e-02
    -3.04340962e-02 -2.39391178e-02 -1.21580728e-03 4.03461885e-03
    -2.63036732e-02 3.42780650e-02 1.64689627e-02 4.10026405e-03
    3.44691658e-03 -7.98537303e-03 9.72018484e-03 2.13957392e-03
    -2.97249723e-02 -1.76631585e-02 9.42968857e-03 -9.12532862e-03
    1.27878487e-02 2.10082941e-02 -1.43507235e-02 -1.07819203e-03
    -1.24704195e-02 -3.42364609e-02 -1.82505744e-03 -4.24171314e-02
    -1.85986459e-02 1.42639661e-02 -3.57433893e-02 -1.00837592e-02
    8.75565317e-03 -2.70873494e-02 7.98781496e-03 -2.26198584e-02
    -6.19980274e-04 -2.33824421e-02 1.68118477e-02 -1.91562306e-02
    1.31693259e-02 -3.94312032e-02 -2.90884897e-02 1.45326061e-02
    4.41061035e-02 -2.76714051e-03 5.86343347e-04 1.03302132e-02
    -2.25832476e-03 2.01145289e-04 1.06598157e-02 3.31473164e-02
    4.27877437e-03 -3.64349410e-03 -2.74576806e-02 2.04694271e-02
    1.78403854e-02 -2.19274182e-02 -1.61220133e-02 1.40830514e-03
    -3.43128107e-03 -4.63526510e-03 1.55776739e-02 -1.95326190e-03
    3.27815115e-02 -8.30488373e-03 -1.15448106e-02 -1.62231401e-02
    8.03224929e-03 -3.84230949e-02 -1.69769544e-02 1.98084563e-02
    -1.59380399e-02 -1.17555186e-02 -5.05192089e-04 -3.49589698e-02
    -2.15434399e-03 2.89623197e-02 -1.48712583e-02 1.66635513e-02
    1.40534295e-02 1.44448364e-02 -3.02729718e-02 -3.94782126e-02
    -6.27525896e-02 3.35734449e-02 2.50258148e-02 -3.22725698e-02
    -9.68956854e-03 -1.39245093e-02 -3.23579721e-02 -4.59148409e-03
    2.19204333e-02 -6.37211837e-03 -1.26733007e-02 3.33834924e-02
    -2.22251210e-02 4.89187287e-03 -9.32823401e-03 -5.91144226e-02
    4.66054492e-02 2.36375742e-02 -4.93311025e-02 1.93260070e-02</SVMDetector></odtrained_hog>
</opencv_storage>
